digraph Tree {
node [shape=box, style="filled, rounded", color="black", fontname="helvetica"] ;
edge [fontname="helvetica"] ;
0 [label="odor <= 0.52\ngini = 0.5\nsamples = 4085\nvalue = [3348, 3151]\nclass = c", fillcolor="#fdf8f3"] ;
1 [label="stalk-color-below-ring <= 0.94\ngini = 0.06\nsamples = 2160\nvalue = [3348, 103]\nclass = c", fillcolor="#e6853f"] ;
0 -> 1 [labeldistance=2.5, labelangle=45, headlabel="True"] ;
2 [label="stalk-shape <= 0.49\ngini = 0.04\nsamples = 2144\nvalue = [3348, 78]\nclass = c", fillcolor="#e6843e"] ;
1 -> 2 ;
3 [label="gini = 0.0\nsamples = 1304\nvalue = [2092, 0]\nclass = c", fillcolor="#e58139"] ;
2 -> 3 ;
4 [label="odor <= 0.02\ngini = 0.11\nsamples = 840\nvalue = [1256, 78]\nclass = c", fillcolor="#e78945"] ;
2 -> 4 ;
5 [label="gini = 0.0\nsamples = 347\nvalue = [525, 0]\nclass = c", fillcolor="#e58139"] ;
4 -> 5 ;
6 [label="population <= 0.54\ngini = 0.17\nsamples = 493\nvalue = [731, 78]\nclass = c", fillcolor="#e88e4e"] ;
4 -> 6 ;
7 [label="cap-shape <= 0.85\ngini = 0.01\nsamples = 335\nvalue = [538, 4]\nclass = c", fillcolor="#e5823a"] ;
6 -> 7 ;
8 [label="gill-size <= 0.59\ngini = 0.01\nsamples = 334\nvalue = [538, 3]\nclass = c", fillcolor="#e5823a"] ;
7 -> 8 ;
9 [label="gini = 0.0\nsamples = 291\nvalue = [476, 0]\nclass = c", fillcolor="#e58139"] ;
8 -> 9 ;
10 [label="gill-spacing <= 0.32\ngini = 0.09\nsamples = 43\nvalue = [62, 3]\nclass = c", fillcolor="#e68743"] ;
8 -> 10 ;
11 [label="gini = 0.0\nsamples = 2\nvalue = [0, 3]\nclass = l", fillcolor="#399de5"] ;
10 -> 11 ;
12 [label="gini = 0.0\nsamples = 41\nvalue = [62, 0]\nclass = c", fillcolor="#e58139"] ;
10 -> 12 ;
13 [label="gini = 0.0\nsamples = 1\nvalue = [0, 1]\nclass = l", fillcolor="#399de5"] ;
7 -> 13 ;
14 [label="habitat <= 0.37\ngini = 0.4\nsamples = 158\nvalue = [193, 74]\nclass = c", fillcolor="#efb185"] ;
6 -> 14 ;
15 [label="gini = 0.0\nsamples = 34\nvalue = [0, 56]\nclass = l", fillcolor="#399de5"] ;
14 -> 15 ;
16 [label="cap-color <= 0.62\ngini = 0.16\nsamples = 124\nvalue = [193, 18]\nclass = c", fillcolor="#e78d4b"] ;
14 -> 16 ;
17 [label="gill-spacing <= 0.32\ngini = 0.1\nsamples = 120\nvalue = [193, 11]\nclass = c", fillcolor="#e68844"] ;
16 -> 17 ;
18 [label="gini = 0.0\nsamples = 23\nvalue = [40, 0]\nclass = c", fillcolor="#e58139"] ;
17 -> 18 ;
19 [label="stalk-surface-above-ring <= 0.62\ngini = 0.13\nsamples = 97\nvalue = [153, 11]\nclass = c", fillcolor="#e78a47"] ;
17 -> 19 ;
20 [label="gini = 0.0\nsamples = 91\nvalue = [153, 0]\nclass = c", fillcolor="#e58139"] ;
19 -> 20 ;
21 [label="gini = 0.0\nsamples = 6\nvalue = [0, 11]\nclass = l", fillcolor="#399de5"] ;
19 -> 21 ;
22 [label="gini = 0.0\nsamples = 4\nvalue = [0, 7]\nclass = l", fillcolor="#399de5"] ;
16 -> 22 ;
23 [label="gini = 0.0\nsamples = 16\nvalue = [0, 25]\nclass = l", fillcolor="#399de5"] ;
1 -> 23 ;
24 [label="gini = 0.0\nsamples = 1925\nvalue = [0, 3048]\nclass = l", fillcolor="#399de5"] ;
0 -> 24 [labeldistance=2.5, labelangle=-45, headlabel="False"] ;
}